function [Y,Xf,Af] = smoothed_NN(X,~,~)
%MYNEURALNETWORKFUNCTION neural network simulation function.
%
% Auto-generated by MATLAB, 29-Jun-2021 10:47:47.
%
% [Y] = myNeuralNetworkFunction(X,~,~) takes these arguments:
%
%   X = 1xTS cell, 1 inputs over TS timesteps
%   Each X{1,ts} = Qx7 matrix, input #1 at timestep ts.
%
% and returns:
%   Y = 1xTS cell of 1 outputs over TS timesteps.
%   Each Y{1,ts} = Qx3 matrix, output #1 at timestep ts.
%
% where Q is number of samples (or series) and TS is the number of timesteps.

%#ok<*RPMT0>

% ===== NEURAL NETWORK CONSTANTS =====

% Input 1
x1_step1.xoffset = [10619.8;10140.6;9878.6;10055.4;9574.8;10241.8;10096];
x1_step1.gain = [0.0289017341040459;0.0398406374501986;0.0212765957446809;0.00913242009132413;0.00195503421309873;0.0476190476190476;0.0184162062615101];
x1_step1.ymin = -1;

% Layer 1
b1 = [-2.4651944035606643268;-1.9808491170586925989;2.5579885273225491105;-1.9224935083836636185;-3.9141318543273491137;1.4065072379660519264;4.732966341781808417;-0.6969866168003248097;-3.1884455001858555967;-3.2498758338572040216;0.089590125886449781256;-1.5902290039489990203;-2.2493998850234997455;1.4424468732063171483;-3.2432647886177017327;1.1119146444573049237;1.3250730690478200735;-0.79757602840128727362;-1.247491871153901366;-1.6751451179775467271;-1.5409362820485628109;1.1417141784850135533;-1.104302378202529189;-0.95664826395002777737;-0.66957112841527344216;-0.29541143704241512591;-1.4199946320683367595;2.7049802683565440375;-0.75177000942802818528;0.78571192498864672604;-0.69947350154951171142;0.10344032573751035797;0.39419130351007664048;0.97589212255728441381;0.84419762871623715839;-1.654111473287086298;-0.69150493033013182842;-0.66487647905913427326;-0.16755258706504572164;-0.88129930602189909816;3.4112133811368186009;-0.52897446063662922899;0.42794292754621215957;0.88429399701621891339;-0.38682027172631389123;-1.362791568673757947;-1.9764952481788715666;-0.28391562602549319516;0.45352427879677187361;-0.012444934742251501092;-0.76345076656052379693;1.8067484392643855529;0.71512168403324694044;-1.4801134693574089507;-1.2738969822093499928;-1.2835589350245300011;0.65439531706810061262;-1.8388593469934961799;2.1631665305376146513;-0.36789266056458169718;2.2278079648070332475;-0.86394952519697776339;1.9419080821694347794;2.8453439056828404574;1.6244551827522213383;2.3676386879196109625;4.0633898826703642726;-2.4940377090957466244;-0.94302880296295710227;-3.2856707709519112903;3.9797957064691527052;-2.4908882300546655308;1.4960851288047649632;-2.822814544877466858;2.4509964482670207886;-1.8073211670328706013;-3.6174431160987277067;-3.5189742254839941893;2.0320891677789969521;-2.1333348841864405721];
IW1_1 = [1.6064401417536193772 -2.1684284321822651087 2.0886058390445434441 -0.12978333345541465116 -1.1417729049807432418 -1.2422811526923636105 0.10234148543690593791;1.3162313027236560714 1.9842624740063627975 -0.13569981970150346573 -1.8015527136731717128 -0.65102567620307094653 -1.0798403625900279135 1.1475299380590842091;-1.6763158325259073234 1.3764111127699416581 -0.55005786146873858478 0.28316632291270782407 1.9524646200318165334 0.6268082332210745955 -0.095919127654173041986;0.05484037145268164104 1.5725681519380814155 0.49685708676974693621 -1.2998945954801690572 2.3705100122447708699 0.097356096677130188333 2.6900188668495932376;-1.3076250532613094002 1.9708217051863134994 -2.9149812864585604721 1.9936609583667077583 -1.7277066136429404253 1.0559912548239780428 1.4474017928425408908;-2.0291839275123799702 -1.3519574698376002342 -0.15126953141324031571 0.1218591464915913386 -0.33960226231312895528 1.6468366954101227861 -0.0022785749138248753698;0.69380430014256344595 0.34795690434841480831 3.3247193468685138917 -1.7098589065957829902 1.1025393648990118312 -0.41181946524106638474 -0.72227956852467822824;0.053844854831347196966 0.19220875605745690873 1.8053374341970092054 -0.087871534082834587553 0.3683299532474760829 -0.61289079607062979527 -0.64123605300442532151;0.94891322039101388963 -1.9660136653219388858 0.9507047247533558787 -0.64849908115953658339 0.49742828087522061864 -1.5522142672625731663 0.22850903571178657336;0.081939730372138058767 0.71062995867366085534 -1.8124878482979260852 -0.57817561772915893048 -0.59923902375195114978 -1.9725776187062338263 0.95995347879553549753;-1.6015861246863645206 -1.7502754956534518627 -1.1445932157562126452 1.0720018968230358158 -0.78248984097688167871 2.1484048562801731919 1.0415536079401777059;1.704781779995602653 -1.9651693269421866006 0.3335618557039888854 0.72233208438694906928 -0.46214410656701665481 -0.71866661098992146162 0.89360642655736255424;1.3039021512025465999 -0.38041545269420701247 0.91179516472827093487 0.98646397300701549327 -1.9405183536417121015 -0.19905923003959866135 0.51068073702635374822;-0.3519383232357283231 1.3918498663565139761 -1.4510387707283620706 -1.1248366125267235116 2.2151704055816470174 0.47394009364559513964 0.77793031995308636883;-1.0275533994131504922 3.2824802772769272607 -3.9117548673921076485 1.012100112143294206 -0.40256134330334475413 0.35700854918572316743 2.4714152605796257944;-0.43338746302581387937 -0.81062397779802808362 -1.0335261857231190508 1.1591703071883383558 -0.20843722245288917594 1.3937330922297828106 -1.4232521202932768567;-0.087998597405909761981 -2.1392334046856813501 1.9078719744701271299 1.4579304262493080202 -1.2508195677418205705 0.93418262043330879685 2.6983043168908942278;0.5985296921771359191 -0.032348273199993643479 1.8337489956352515108 -0.34755688688601427128 -1.5940968192450408747 -0.43910917047973890837 -0.45119901335643142204;0.28983527215287979706 -2.0333010960000930112 1.1514890755660021071 -0.51678355452513435875 -0.056491127189263183606 -0.87302379353287984376 -1.3246530052113492104;2.5516645125438066621 -0.22023938072323537285 0.085249154792859008212 1.2410702188999951368 -0.20439147144754613028 0.65085912615879359944 0.10255866983287338645;0.066911389915080027313 0.65575024523292180234 -0.064070775356044162852 -0.043190361839390352394 4.067897950302357124 2.5015170026121409386 1.2675113855186437295;-1.2498288573494278353 1.0702366304045136669 -1.4744265185512415162 1.3073075170229102593 2.0941255708079538067 -1.6118380812166801519 0.5164949725492521404;1.4551179216635619085 -1.6302369394966711447 0.54176418286483785103 -0.056218309754109532794 -2.1559256997743103668 -2.3069543912670922303 0.15307081613153508681;2.9256229421202828433 0.57536680508931159483 -0.9523144483775253244 0.99712477976968261206 2.6176669946989870041 0.20151848053892224 0.037587963310907010483;1.7643247837460425131 -1.5338975517671689097 1.5626953899260602743 -1.8039339999243633184 -1.5901808997652622235 0.44047166100291773594 -1.4332683595724722281;1.4462006489685141908 1.8597843398889537525 -0.21464653318254220404 -1.3893078741194413439 -0.48967506352481904308 -1.0781405987854688622 -3.2984613008248855337;-0.50791702197120147666 0.45367370771737108859 -0.7406035171167731912 -0.7063638248383642404 0.17550386611282450811 -2.0727737926977933824 2.137557290667791321;1.5067914521414085272 0.51943099188823604884 -0.040985033092347127048 0.15923103251161019323 1.7282307615258758471 1.055692346150823413 3.90132637436867169;0.44390150812113421397 2.1401582920850561464 0.50995850923173213776 -1.4098848224684008557 -0.45867805621660384663 -1.000221264799357801 0.42549970434020178978;-1.1475591621503105078 0.30434976251655077029 -1.226705513780855572 -0.02736463705950006875 0.73515279158582502728 1.7512831943102189491 0.47019760410872474266;-0.0051620794875349464148 -0.80597855261145578964 2.2206266500439926226 -1.5943201803464817079 -1.4196521083833286703 -2.2719066748250726917 1.2927151543622501517;-1.382616890877898852 -0.62829734643592261012 -0.16819060340226099637 0.37330400272975367004 0.20784395025836760462 1.515040055649263584 0.036362323450035399786;-1.6847129238230400539 -2.4374958098825114661 1.0947669644046831294 -0.35281157613750585567 -0.33072970064446893801 1.7602905720142867363 -0.62694714072207313738;-1.6752031035118926106 2.4829846194843487872 -1.4313523006517381297 1.6922789863460714344 0.15998242425111602882 1.2369056171684167378 1.0171888038101020157;-0.84548854718407395747 -1.8069377120373231183 0.069867855349029575618 2.0190493226649781633 1.1278022613921980799 -1.6071942148342739376 0.24719676268650689344;-1.7487585614482030749 2.2602660488192656274 -2.1366847403653470572 1.2603894267757396186 1.857787787560407855 -0.068482586956635407849 4.8074308112439814167;0.27794726085709287045 0.97863829806194768679 0.14993636907052584895 1.202943821006079439 -1.5834374697342008531 -2.0142181391748370523 -1.7919942326705307067;0.6790309173329364123 3.0292943643463612347 -1.3139829813428285377 0.2696296728333264503 -0.94464314372196112046 0.00063112195264601036668 -0.7892673831542056373;1.1664529754333712308 -1.2290201864553065292 1.5865509827148400746 0.20114852947814276796 1.3817615809769612234 0.80943558853563968292 -1.9356318211659850892;-0.95381108192287100689 -0.56240751948843636931 0.41690661242216442428 0.38317051471814722596 -2.517408700392997023 -3.7096763718405223464 -1.965841556945427504;-0.53839284690840671921 -0.61154552607182288693 0.83135949583759394255 -1.0198501490961042748 0.53440797992666855265 -5.3807656000714594313 -2.5998612433710315273;0.64744649560133626931 3.1211654135357274065 -2.1297234861016427487 1.614392306633943841 -0.3408147009992459342 -0.16307967686204671853 -0.69981357133212174215;1.4969119720370427373 -2.4808757524739619704 1.7304748834441514571 -1.0310838052482242944 1.3582253841442701869 -1.7675057306560819637 -1.0702116310479807826;1.120580741156057103 1.3264213691618036428 0.023857003796304662724 -2.0175896042487848625 2.1187650490152201144 4.192457139779799391 2.5724217500006165693;-1.247763828569000033 -0.31140596305771844898 0.74005720307372879763 1.6172816676773045241 -2.0775532744157301224 -2.2392624300105774537 -0.87591182785671051203;0.28469631360905278683 3.5479670277557269209 1.0863629802016996351 0.8753108912612737047 -0.43093973176711264372 0.070385859704237233037 0.73674232265333661207;0.87432484441074720394 0.20563556825924717009 -1.6292970652368836681 -0.81323187756562920203 0.20049863178032967248 -0.063732104161286357025 3.9757502963650050987;0.65962435031841171185 -1.3207036893585206716 0.26248322904003507094 1.1602682820892566973 1.5631202180004417635 -1.7871252505246904008 1.8027229077782165323;1.605032418414984674 1.138355702512379608 -0.17903640703925771671 0.56061519844735974161 -1.7273326970840259253 0.7045336162098947419 -2.4323317997009552549;-0.43628788864225526156 3.9407880998544801976 -1.1258393568069517965 1.178145920049722406 1.9241562957800499856 -1.2980877465449853769 -3.0004214658309753538;-0.87642633269890779513 -0.010997152619248459424 -0.71114865133439975065 -1.4021885325229677122 0.41913499259455105905 1.8395001494371592266 1.3952967928172921308;-1.0900694883210533259 0.70343788705385212889 0.52369404611936554161 0.79003326843092724907 -0.24658135453951171567 -3.780636614242017135 -1.0415383598206975346;-0.33996705014769307285 -0.52823263068855608182 -0.70138934731836533043 1.7810550629562225122 -1.3186387622929027774 -1.5210977154248572774 0.74724794630303892351;-1.0226883394327843657 -1.0778029004576201721 -0.80761775377557687428 -2.0935364905751736586 -1.4842705119606753872 -0.57301347706297933726 0.48369868847348557184;-3.0017659843095780836 -0.037455942044640921917 0.26755822847400706488 2.8159528549980530343 0.14611299927378157415 0.55559160812247931904 1.2421412286340858255;-0.46401922257363514834 -1.5283025868483013365 -1.2482101721453096044 -0.84103513572256727304 -1.7589748687933839388 1.0745503765122212947 -0.011675232983072060186;0.72789884012388939016 3.2736554986315100635 -0.94747638152704349856 1.6552788430432519018 -0.34134665052415130715 -1.2851255952049585041 -1.2681981535898267932;-1.504972445081497856 -0.27709138158918178441 -0.79600578649466868786 1.151808431479956818 -1.5221792527175437293 1.6716616358127409647 0.44189221998975880545;0.58118495469013953247 -1.056060032362923895 -0.70848938012779150153 0.7919446111902865848 -0.62899547555269186283 -0.46060277702483493067 2.2079922838519512318;-0.92273604185744650952 0.0047914776237437508091 0.80310766372255126821 -1.091710126619458876 -0.026174606487124607579 -2.1773219561911396625 -0.76912433011438585684;1.4353214012062804894 2.6535375331289183798 -0.47784340719460705049 -2.7313330019304560281 -0.50471544118572242432 0.070631652800669270098 -0.49035231942404616801;-2.8223751152259350938 1.1122456031765206586 1.8252172318436670206 -0.081575716031241765624 0.35865795064767513889 2.7235118862895180136 -2.9360402253540516249;-0.16240461011649348633 -0.60069244947405286972 -0.50664641084511907732 -2.5944748315591334986 0.97390610800729304763 0.28987168504703803018 -0.23922227803524059864;0.82838458246345170188 0.067250469644893687282 0.24362396407079903171 -1.1076324855404482417 -0.33825794458262997688 -2.4720147430255257071 -1.5852211226095294094;0.64892173423279975175 -1.9742596172133162202 2.7085605333936380035 0.1931768053567572696 0.57567831783908673948 -0.56051210191277334172 -1.4166088694058849295;-0.61781388029463291112 -0.93070882887988848342 2.2394959348447787129 0.39216083464802120595 1.6257330465454153945 1.1310309253326298329 -0.53727598921463803894;1.0303472604874606144 -3.9091620959750170705 -0.072210505341699621207 2.4425158944012346218 -2.4125457390522595524 -8.6319341141295549136 -7.1966540626390234081;-1.6837614873384312286 -0.97005866972768461931 -2.3446738590903466459 0.2286047882748588056 -0.54304186735258774821 1.7756039556106193444 -1.076304620905462528;-1.610188763488101138 -0.41245906485700112309 -0.52065292086519932013 1.5300361202001229177 0.71481385596316360242 -0.25196639786836477759 0.17075293488898748984;-0.55976102236636082754 -0.62270634313677486471 -2.6529191563605820647 -2.5956642666218292526 -1.4783174708739623693 1.588758223271248049 -0.94605248713585288201;2.5065295846665018864 -1.8509107215539737368 0.85108027789401230478 -1.5724075232960625925 2.4443441685032021304 -3.1220121331996630865 0.16303254534025213296;-1.7947612193121698088 -0.56912160645990006458 -1.9538065923705170146 1.5844884870133737476 1.4462461023240540392 1.299230399902766786 0.013712420647451454767;0.68441900441635561414 1.7626694279048003011 0.42705895131969257017 0.52712216799413680324 0.89716566925283069978 -1.2709966389762796801 1.0729020326997082968;-0.50173654734503259078 1.6323257350992834702 1.6573239552487715187 1.4852547111328466833 -1.3785964204658340826 -2.5625757006908518321 -0.90010951585511589368;0.19107668196639504554 0.58056704825858118646 -0.55601181778658670396 -0.17151711345403705677 0.68407399513683864178 -2.4370096280462996141 -0.043807369179940380821;-2.7933668542510958765 1.8695250945820935939 -0.43544890046916018278 -0.77375355949278079581 -0.53707264064506954337 -0.013212520056119362796 -1.450271389530626065;-3.8690736981607147804 0.13793274592643198218 -1.5749457184069082238 -0.34146119029185950655 -0.047636323801780122711 0.28194150059775180406 -0.7468425521352437535;-1.4041674933665229119 5.2180482520291651127 -0.0083337634875131124529 0.43025452230741934034 -1.7932035213123198591 -1.5693519239964053291 -3.9127231799034101201;0.49543676279686277297 -0.73000229190261434198 -0.74203845398082968199 -2.1098779492210035791 -1.2121194217052968511 -0.54625135528311052902 -0.36504640900580598295;-0.47558110384144569593 -1.0698227198602376919 -0.14157320075842436125 -1.7376823463808459547 -0.67463570084724888698 0.72803415595422460438 -1.2339916741788106158];

% Layer 2
b2 = [-0.11273436243693929493;1.672015786469627896;0.90867144796693055664];
LW2_1 = [0.86939833613200223628 -1.3250605268910113921 1.7980070990357741589 -1.0005471796226086401 -1.0971144446989555821 0.95513097492296672453 1.3753001517133363052 0.73527293393031700752 0.28207049333748940301 1.3595711316714489403 -0.49988028145733809371 0.57912750193253914599 -0.24707530259084292679 0.41581362616267553145 0.77858513800772211066 -1.2417146919519848058 -0.52289109268017719412 1.2752245036896534547 -0.5477500731506984577 0.27245033099820742395 -2.1293219583980005361 0.075388206932240048319 -0.60199525944652798604 0.9554178366415813084 -1.1609453365357345067 0.057451897727495600254 0.26582043656343684601 0.0076094783262597330206 1.1070839703945347665 -0.85176751989271926035 -0.38098033496392169628 -1.4402940496180436369 0.60269465344138706264 -0.35449703466227061588 0.23631003089723814914 0.038704112255721859204 -0.047072389201338445119 0.1648446148369538955 -1.0008668755620471202 -2.6289292011051168529 1.2395581528560410955 -0.39395615533429373389 0.51193469071450226071 -0.84392447669542669519 0.70556296642937466057 -0.27466949295761700078 -0.14068221962643492895 -0.78251483972586433069 0.17189719479493270615 -0.32851048373417418569 0.11331764741816155451 -0.37977297290522704643 -1.5422431737965696108 -0.42908873088541266139 -0.58591605091318310627 0.67885687057134591615 0.06128882712683304812 1.6942091029207282382 0.5427662553490903985 -1.3632347717739743409 0.1579267648300907434 -0.19971648811735345785 -0.20136821715127245502 -0.75875984835220233737 0.7926858577155049268 -1.0907697126534954268 -0.15179081186383705515 -0.41791026553905441521 2.0488801675447279038 0.16066757899274022869 0.43692848405663903266 0.77832903919546536642 -0.8733356918658248258 -0.21676915503793101059 0.021170320505189403615 0.17110330428533729319 -0.34627353212511019498 0.21941179778721023319 1.2269720336039673381 0.82591132019562496502;-0.083254069359799579009 -0.68225184145598682939 0.085303573413472832954 0.34609571563508373382 2.2188304268700025368 0.44656305521727029939 0.010945066109213797551 -0.10855830034610398915 -1.3171961486047658596 -0.49149941062338836639 -1.0339818067328361284 -0.84094997832379159153 -0.48923240739212214834 -0.0019157718760443916833 -1.1451057143162253205 0.89497524523377847139 -0.53899789755176352735 0.11557588869774938767 -1.2911794915904082348 0.16054658200530591561 0.85481577074464365484 0.2717743811829265721 2.400689783370018926 0.18831335173997065802 0.44495496343556556473 0.35936358758212810782 -0.030468443387643758674 0.089257904870882809334 0.98451902450246586707 -0.28089149232689397673 0.49529777390771129175 1.0400288464627367446 0.17185084632159794427 -0.94413839293612122905 -0.31094836216816346131 0.35397998193219615271 -0.11050271646884897436 -1.3094042119565405535 0.50703580583937146731 0.97165843452417477444 -0.77710555351716337213 1.0233506071990126074 -0.44095673561601239632 0.12088542985479765191 -1.6167146719173861591 -0.032041379700648423001 -0.26035621061331160053 1.2721857309267112779 0.42372376410534307034 -1.0573961807432230575 -0.54959399783817242113 0.75305827223019039529 0.71157173638064485921 -0.12057739190627454751 -0.55816179915907770948 0.15600599552422331207 -0.0061650222665817818596 -0.76466595715648200127 -0.9862582975613449765 -0.49183635102035921927 -1.256831839304985321 0.30839646544590471056 -0.449431040257324943 -0.16643079986125375314 -0.34148029646989119801 0.57952218292853441284 0.14192280278138894034 0.2972222182941030022 0.29455594515941824207 -0.23667181347665741664 -1.5839185279777430182 0.017630257800710501248 -0.062829329661497138049 -0.45958055022009342006 0.73852524162156851784 0.26828092393623814704 0.0054861555572017607976 0.67212780628456236798 -0.77857417334934142517 -0.017543886643023684502;1.3694838122041426143 -1.4098921428538992995 -0.75169910070756162934 0.042889421936409918845 0.59464466277616956358 0.87549252297268187473 1.5917021151839720883 -0.82340550980410365245 -1.9363397381011744347 0.69447973854579114761 -0.93360532817763430824 -2.1515646334135829498 -1.2762346102342967402 1.2206586532939740497 -0.4554166944964455066 0.04441155738120233093 -0.52092340542829163041 0.78568209902636543251 -1.0975216358077204415 0.4381243366590327204 -1.7263469067487422492 1.3696242063035903858 2.0065290497849490592 0.11361835938909450872 -0.15489407551454287271 0.43901733651282992543 0.5508893153829287348 0.32176960461092785071 1.201146182074288804 -1.4929072740463955604 0.073775475912519927757 -0.27954509969347535181 0.6713736040647790837 -1.4412050054874747662 -0.37077428073582580081 0.6400941838333710221 -0.60668469560409021835 -1.4029865676300548039 0.13871159126647844562 -2.2760912460319975281 0.66712400122664194946 0.933695710008609292 -1.3944528472444890355 -0.94445817869456116789 -0.49017510776117595439 -0.19654975344236427781 -0.52063235108783489924 0.75526861748352780435 0.61185665009569545347 -1.1015995867402894604 -0.90055844408315788296 0.057454951550951052774 -0.58228479053787685071 -0.46664482152460062814 -1.7463662136227675603 0.96665511102027878998 -0.051362953100128234951 0.76069594653703542786 -1.3921698934346171672 -1.0523104364714375158 -1.557757001596816071 -0.1680327704309157455 -1.332728337008832753 -1.5177337279407592252 0.16442005682310054104 1.2259462203292614824 0.16748051706171299124 0.84281304280703883691 0.56840046826574763816 -0.62025314285941945958 -1.1799840493494946347 1.8884015470645820756 -0.42344540680572628766 -0.54746644045184267302 1.694332748850617909 0.4658274055780283196 -0.043188286663112425423 0.65419499782078649464 -0.92534207475326468728 0.63588843395126892766];

% Output 1
y1_step1.ymin = -1;
y1_step1.gain = [0.0186219739292365;0.0781249999999999;0.019047619047619];
y1_step1.xoffset = [-45;-386.4;-48];

% ===== SIMULATION ========

% Format Input Arguments
isCellX = iscell(X);
if ~isCellX
    X = {X};
end

% Dimensions
TS = size(X,2); % timesteps
if ~isempty(X)
    Q = size(X{1},1); % samples/series
else
    Q = 0;
end

% Allocate Outputs
Y = cell(1,TS);

% Time loop
for ts=1:TS
    
    % Input 1
    X{1,ts} = X{1,ts}';
    Xp1 = mapminmax_apply(X{1,ts},x1_step1);
    
    % Layer 1
    a1 = tansig_apply(repmat(b1,1,Q) + IW1_1*Xp1);
    
    % Layer 2
    a2 = repmat(b2,1,Q) + LW2_1*a1;
    
    % Output 1
    Y{1,ts} = mapminmax_reverse(a2,y1_step1);
    Y{1,ts} = Y{1,ts}';
end

% Final Delay States
Xf = cell(1,0);
Af = cell(2,0);

% Format Output Arguments
if ~isCellX
    Y = cell2mat(Y);
end
end

% ===== MODULE FUNCTIONS ========

% Map Minimum and Maximum Input Processing Function
function y = mapminmax_apply(x,settings)
y = bsxfun(@minus,x,settings.xoffset);
y = bsxfun(@times,y,settings.gain);
y = bsxfun(@plus,y,settings.ymin);
end

% Sigmoid Symmetric Transfer Function
function a = tansig_apply(n,~)
a = 2 ./ (1 + exp(-2*n)) - 1;
end

% Map Minimum and Maximum Output Reverse-Processing Function
function x = mapminmax_reverse(y,settings)
x = bsxfun(@minus,y,settings.ymin);
x = bsxfun(@rdivide,x,settings.gain);
x = bsxfun(@plus,x,settings.xoffset);
end
